Language model created by QuickLM on Sun Aug 23 03:41:26 EDT 2020
Copyright (c) 1996-2010 Carnegie Mellon University and Alexander I. Rudnicky

The model is in standard ARPA format, designed by Doug Paul while he was at MITRE.

The code that was used to produce this language model is available in Open Source.
Please visit http://www.speech.cs.cmu.edu/tools/ for more information

The (fixed) discount mass is 0.5. The backoffs are computed using the ratio method.
This model based on a corpus of 117 sentences and 104 words

\data\
ngram 1=104
ngram 2=222
ngram 3=254

\1-grams:
-0.9318 </s> -0.3010
-0.9318 <s> -0.2460
-2.6990 ACCESS -0.2470
-2.6990 ADMIN -0.2470
-3.0000 AFTERNOON -0.2470
-2.6990 ANACONDA -0.2470
-2.6990 ARDUINO -0.2470
-2.6990 ARE -0.2997
-2.6990 BASH -0.2470
-2.5229 BLUETOOTH -0.2440
-3.0000 BYE, -0.2997
-2.6990 CALCULATOR -0.2470
-2.6990 CALENDAR -0.2470
-2.6990 CAMERA -0.2470
-3.0000 CARD -0.2470
-3.0000 CENTER -0.2470
-2.6990 CHROME -0.2470
-1.3768 CLOSE -0.2605
-2.6990 CMD -0.2470
-2.6990 CODE -0.2470
-3.0000 CODE? -0.2470
-2.6990 COMMAND -0.3002
-3.0000 CONNECT -0.3006
-3.0000 CORTANA -0.2470
-3.0000 DATA -0.3006
-3.0000 DATE -0.3006
-3.0000 DETAILS -0.2470
-3.0000 DEVELOPER? -0.2470
-3.0000 DEVELOPING -0.3006
-3.0000 DISCONNECT -0.2997
-3.0000 DISPLAY -0.2984
-2.6990 ECLIPSE -0.2470
-3.0000 EVENING -0.2470
-2.6990 EXCEL -0.2470
-2.6990 FACEBOOK -0.2470
-2.6990 FIREFOX -0.2470
-2.6990 FIREWALL -0.2470
-3.0000 FULLSCREEN -0.2470
-2.3979 GIT -0.2460
-2.3010 GOOD -0.2989
-2.6990 GROOVE -0.2470
-3.0000 HEY -0.3006
-3.0000 HOW -0.3002
-3.0000 I -0.3006
-3.0000 IN -0.2997
-3.0000 INTRODUCE -0.3006
-2.3979 IS -0.2993
-2.5229 JAR -0.2470
-3.0000 LANGUAGE -0.2993
-3.0000 LOVE -0.3006
-2.6990 MAIL -0.2470
-3.0000 MARJAVAAN -0.3006
-3.0000 ME -0.3006
-2.6990 MICROSOFT -0.2470
-3.0000 MORNING -0.2470
-2.5229 MUSIC -0.2465
-2.6990 MYECLIPSE -0.2470
-3.0000 NAME? -0.2470
-2.6990 NETBEANS -0.2470
-2.6990 NETWORK -0.2470
-3.0000 NIGHT -0.2470
-2.6990 NODE -0.2470
-3.0000 NOTEPAD -0.2470
-2.6990 NOTIFICATIONS -0.2470
-3.0000 ON -0.3002
-3.0000 ONLY -0.2993
-1.3468 OPEN -0.2586
-2.5229 PAINT -0.2470
-2.6990 PDF -0.2470
-3.0000 PERSONAL -0.2470
-2.6990 PHOTOS -0.2470
-2.5229 PLAY -0.2989
-2.6990 PPT -0.2470
-3.0000 PROGRAMMING -0.3006
-2.6990 PROJECTING -0.2470
-2.6990 PYTHON -0.2470
-2.6990 SET -0.2989
-2.2218 SETTING -0.2470
-2.5229 SHOW -0.2989
-2.3979 SOUND -0.2465
-2.6990 SQL -0.2470
-2.5229 START -0.2975
-3.0000 SYSTEM -0.3006
-2.6990 TASK -0.2470
-2.6990 TEAM -0.2470
-3.0000 THANK -0.3006
-3.0000 TIME -0.2470
-2.6990 TURBO -0.2470
-3.0000 USE -0.2470
-3.0000 USED -0.3006
-3.0000 VIVO -0.2470
-2.6990 VLC -0.2470
-2.5229 WHAT -0.2989
-3.0000 WHERE -0.3002
-3.0000 WHO -0.2993
-2.5229 WIFI -0.2430
-3.0000 WIKIPEDIA -0.2470
-2.6990 WORD -0.2470
-3.0000 YOU -0.2470
-3.0000 YOU, -0.2997
-2.5229 YOU? -0.2470
-2.5229 YOUR -0.2997
-3.0000 YOURSELF -0.2470
-2.6990 YOUTUBE -0.2470

\2-grams:
-0.7460 <s> CLOSE 0.0000
-2.3692 <s> CONNECT 0.0000
-2.3692 <s> DATE 0.0000
-2.3692 <s> DISCONNECT 0.0000
-1.6702 <s> GOOD 0.0000
-2.3692 <s> HEY 0.0000
-2.3692 <s> HOW 0.0000
-2.3692 <s> I 0.0000
-2.3692 <s> INTRODUCE 0.0000
-2.3692 <s> JAR 0.0000
-0.7160 <s> OPEN 0.0000
-1.8921 <s> PLAY 0.0000
-2.0682 <s> SET 0.0000
-1.8921 <s> SHOW 0.0000
-1.8921 <s> START 0.0000
-2.3692 <s> THANK 0.0000
-1.8921 <s> WHAT 0.0000
-2.3692 <s> WHERE 0.0000
-2.3692 <s> WHO 0.0000
-0.3010 ACCESS </s> -0.3010
-0.3010 ADMIN </s> -0.3010
-0.3010 AFTERNOON </s> -0.3010
-0.3010 ANACONDA </s> -0.3010
-0.3010 ARDUINO </s> -0.3010
-0.3010 ARE YOU? 0.0000
-0.3010 BASH </s> -0.3010
-0.4771 BLUETOOTH </s> -0.3010
-0.7782 BLUETOOTH SETTING 0.0000
-0.3010 BYE, JAR 0.0000
-0.3010 CALCULATOR </s> -0.3010
-0.3010 CALENDAR </s> -0.3010
-0.3010 CAMERA </s> -0.3010
-0.3010 CARD </s> -0.3010
-0.3010 CENTER </s> -0.3010
-0.3010 CHROME </s> -0.3010
-1.9243 CLOSE ACCESS 0.0000
-1.9243 CLOSE ANACONDA 0.0000
-1.9243 CLOSE ARDUINO 0.0000
-1.9243 CLOSE BLUETOOTH -0.1249
-1.9243 CLOSE CALCULATOR 0.0000
-1.9243 CLOSE CALENDAR 0.0000
-1.9243 CLOSE CAMERA 0.0000
-1.9243 CLOSE CHROME 0.0000
-1.9243 CLOSE CMD 0.0000
-1.9243 CLOSE CODE 0.0000
-1.9243 CLOSE COMMAND 0.0000
-1.9243 CLOSE ECLIPSE 0.0000
-1.9243 CLOSE EXCEL 0.0000
-1.9243 CLOSE FACEBOOK 0.0000
-1.9243 CLOSE FIREFOX 0.0000
-1.9243 CLOSE FIREWALL 0.0000
-1.6232 CLOSE GIT 0.0000
-1.9243 CLOSE GROOVE 0.0000
-1.9243 CLOSE MAIL 0.0000
-1.9243 CLOSE MICROSOFT 0.0000
-1.9243 CLOSE MUSIC -0.1249
-1.9243 CLOSE MYECLIPSE 0.0000
-1.9243 CLOSE NETBEANS 0.0000
-1.9243 CLOSE NODE 0.0000
-1.9243 CLOSE NOTIFICATIONS 0.0000
-1.6232 CLOSE PAINT 0.0000
-1.9243 CLOSE PDF 0.0000
-1.9243 CLOSE PHOTOS 0.0000
-1.9243 CLOSE PPT 0.0000
-1.9243 CLOSE PROJECTING 0.0000
-1.9243 CLOSE PYTHON 0.0000
-1.6232 CLOSE SETTING 0.0000
-1.9243 CLOSE SOUND -0.0969
-1.9243 CLOSE SQL 0.0000
-1.9243 CLOSE TASK 0.0000
-1.9243 CLOSE TEAM 0.0000
-1.9243 CLOSE TURBO 0.0000
-1.9243 CLOSE VLC 0.0000
-1.9243 CLOSE WORD 0.0000
-0.3010 CMD </s> -0.3010
-0.3010 CODE </s> -0.3010
-0.3010 CODE? </s> -0.3010
-0.3010 COMMAND ADMIN 0.0000
-0.3010 CONNECT VIVO 0.0000
-0.3010 CORTANA </s> -0.3010
-0.3010 DATA USE 0.0000
-0.3010 DATE TIME 0.0000
-0.3010 DETAILS </s> -0.3010
-0.3010 DEVELOPER? </s> -0.3010
-0.3010 DEVELOPING CODE? 0.0000
-0.3010 DISCONNECT WIFI -0.2218
-0.3010 DISPLAY SETTING 0.0000
-0.3010 ECLIPSE </s> -0.3010
-0.3010 EVENING </s> -0.3010
-0.3010 EXCEL </s> -0.3010
-0.3010 FACEBOOK </s> -0.3010
-0.3010 FIREFOX </s> -0.3010
-0.3010 FIREWALL </s> -0.3010
-0.3010 FULLSCREEN </s> -0.3010
-0.6021 GIT </s> -0.3010
-0.6021 GIT BASH 0.0000
-1.0000 GOOD AFTERNOON 0.0000
-1.0000 GOOD BYE, 0.0000
-1.0000 GOOD EVENING 0.0000
-1.0000 GOOD MORNING 0.0000
-1.0000 GOOD NIGHT 0.0000
-0.3010 GROOVE </s> -0.3010
-0.3010 HEY CORTANA 0.0000
-0.3010 HOW ARE 0.0000
-0.3010 I LOVE 0.0000
-0.3010 IN YOU? 0.0000
-0.3010 INTRODUCE YOURSELF 0.0000
-0.9031 IS USED 0.0000
-0.4260 IS YOUR 0.0000
-0.3010 JAR </s> -0.3010
-0.3010 LANGUAGE IS -0.2430
-0.3010 LOVE YOU 0.0000
-0.3010 MAIL </s> -0.3010
-0.3010 MARJAVAAN ON 0.0000
-0.3010 ME SYSTEM 0.0000
-0.3010 MICROSOFT </s> -0.3010
-0.3010 MORNING </s> -0.3010
-0.4771 MUSIC </s> -0.3010
-0.7782 MUSIC FULLSCREEN 0.0000
-0.3010 MYECLIPSE </s> -0.3010
-0.3010 NAME? </s> -0.3010
-0.3010 NETBEANS </s> -0.3010
-0.3010 NETWORK </s> -0.3010
-0.3010 NIGHT </s> -0.3010
-0.3010 NODE </s> -0.3010
-0.3010 NOTEPAD </s> -0.3010
-0.3010 NOTIFICATIONS </s> -0.3010
-0.3010 ON YOUTUBE 0.0000
-0.3010 ONLY SOUND -0.0969
-1.9542 OPEN ACCESS 0.0000
-1.9542 OPEN ANACONDA 0.0000
-1.9542 OPEN ARDUINO 0.0000
-1.6532 OPEN BLUETOOTH 0.0000
-1.9542 OPEN CALCULATOR 0.0000
-1.9542 OPEN CALENDAR 0.0000
-1.9542 OPEN CAMERA 0.0000
-1.9542 OPEN CENTER 0.0000
-1.9542 OPEN CHROME 0.0000
-1.9542 OPEN CMD 0.0000
-1.9542 OPEN CODE 0.0000
-1.9542 OPEN COMMAND 0.0000
-1.9542 OPEN DISPLAY 0.0000
-1.9542 OPEN ECLIPSE 0.0000
-1.9542 OPEN EXCEL 0.0000
-1.9542 OPEN FACEBOOK 0.0000
-1.9542 OPEN FIREFOX 0.0000
-1.9542 OPEN FIREWALL 0.0000
-1.9542 OPEN GIT -0.1761
-1.9542 OPEN MAIL 0.0000
-1.9542 OPEN MARJAVAAN 0.0000
-1.9542 OPEN MICROSOFT 0.0000
-1.9542 OPEN MYECLIPSE 0.0000
-1.9542 OPEN NETBEANS 0.0000
-1.9542 OPEN NETWORK 0.0000
-1.9542 OPEN NODE 0.0000
-1.9542 OPEN NOTEPAD 0.0000
-1.9542 OPEN NOTIFICATIONS 0.0000
-1.9542 OPEN PAINT 0.0000
-1.9542 OPEN PDF 0.0000
-1.9542 OPEN PERSONAL 0.0000
-1.9542 OPEN PHOTOS 0.0000
-1.9542 OPEN PPT 0.0000
-1.9542 OPEN PYTHON 0.0000
-1.9542 OPEN SETTING 0.0000
-1.9542 OPEN SOUND -0.2430
-1.9542 OPEN SQL 0.0000
-1.9542 OPEN TASK 0.0000
-1.9542 OPEN TEAM 0.0000
-1.9542 OPEN VLC 0.0000
-1.9542 OPEN WIFI -0.2218
-1.9542 OPEN WIKIPEDIA 0.0000
-1.9542 OPEN WORD 0.0000
-1.9542 OPEN YOUTUBE 0.0000
-0.3010 PAINT </s> -0.3010
-0.3010 PDF </s> -0.3010
-0.3010 PERSONAL </s> -0.3010
-0.3010 PHOTOS </s> -0.3010
-0.7782 PLAY GROOVE 0.0000
-0.4771 PLAY MUSIC 0.0000
-0.3010 PPT </s> -0.3010
-0.3010 PROGRAMMING LANGUAGE 0.0000
-0.3010 PROJECTING </s> -0.3010
-0.3010 PYTHON </s> -0.3010
-0.6021 SET ONLY 0.0000
-0.6021 SET SOUND -0.0969
-0.3010 SETTING </s> -0.3010
-0.7782 SHOW DATA 0.0000
-0.7782 SHOW ME 0.0000
-0.7782 SHOW WIFI -0.2218
-0.4260 SOUND </s> -0.3010
-0.9031 SOUND CARD 0.0000
-0.3010 SQL </s> -0.3010
-0.7782 START GIT -0.1761
-0.7782 START PROJECTING 0.0000
-0.7782 START TURBO 0.0000
-0.3010 SYSTEM DETAILS 0.0000
-0.3010 TASK </s> -0.3010
-0.3010 TEAM </s> -0.3010
-0.3010 THANK YOU, 0.0000
-0.3010 TIME </s> -0.3010
-0.3010 TURBO </s> -0.3010
-0.3010 USE </s> -0.3010
-0.3010 USED IN 0.0000
-0.3010 VIVO </s> -0.3010
-0.3010 VLC </s> -0.3010
-0.4771 WHAT IS -0.0969
-0.7782 WHAT PROGRAMMING 0.0000
-0.3010 WHERE ARE 0.0000
-0.3010 WHO IS -0.0969
-0.7782 WIFI </s> -0.3010
-0.7782 WIFI NETWORK 0.0000
-0.7782 WIFI SETTING 0.0000
-0.3010 WIKIPEDIA </s> -0.3010
-0.3010 WORD </s> -0.3010
-0.3010 YOU </s> -0.3010
-0.3010 YOU, JAR 0.0000
-0.3010 YOU? </s> -0.3010
-0.7782 YOUR DEVELOPER? 0.0000
-0.7782 YOUR DEVELOPING 0.0000
-0.7782 YOUR NAME? 0.0000
-0.3010 YOURSELF </s> -0.3010
-0.3010 YOUTUBE </s> -0.3010

\3-grams:
-1.9243 <s> CLOSE ACCESS
-1.9243 <s> CLOSE ANACONDA
-1.9243 <s> CLOSE ARDUINO
-1.9243 <s> CLOSE BLUETOOTH
-1.9243 <s> CLOSE CALCULATOR
-1.9243 <s> CLOSE CALENDAR
-1.9243 <s> CLOSE CAMERA
-1.9243 <s> CLOSE CHROME
-1.9243 <s> CLOSE CMD
-1.9243 <s> CLOSE CODE
-1.9243 <s> CLOSE COMMAND
-1.9243 <s> CLOSE ECLIPSE
-1.9243 <s> CLOSE EXCEL
-1.9243 <s> CLOSE FACEBOOK
-1.9243 <s> CLOSE FIREFOX
-1.9243 <s> CLOSE FIREWALL
-1.6232 <s> CLOSE GIT
-1.9243 <s> CLOSE GROOVE
-1.9243 <s> CLOSE MAIL
-1.9243 <s> CLOSE MICROSOFT
-1.9243 <s> CLOSE MUSIC
-1.9243 <s> CLOSE MYECLIPSE
-1.9243 <s> CLOSE NETBEANS
-1.9243 <s> CLOSE NODE
-1.9243 <s> CLOSE NOTIFICATIONS
-1.6232 <s> CLOSE PAINT
-1.9243 <s> CLOSE PDF
-1.9243 <s> CLOSE PHOTOS
-1.9243 <s> CLOSE PPT
-1.9243 <s> CLOSE PROJECTING
-1.9243 <s> CLOSE PYTHON
-1.6232 <s> CLOSE SETTING
-1.9243 <s> CLOSE SOUND
-1.9243 <s> CLOSE SQL
-1.9243 <s> CLOSE TASK
-1.9243 <s> CLOSE TEAM
-1.9243 <s> CLOSE TURBO
-1.9243 <s> CLOSE VLC
-1.9243 <s> CLOSE WORD
-0.3010 <s> CONNECT VIVO
-0.3010 <s> DATE TIME
-0.3010 <s> DISCONNECT WIFI
-1.0000 <s> GOOD AFTERNOON
-1.0000 <s> GOOD BYE,
-1.0000 <s> GOOD EVENING
-1.0000 <s> GOOD MORNING
-1.0000 <s> GOOD NIGHT
-0.3010 <s> HEY CORTANA
-0.3010 <s> HOW ARE
-0.3010 <s> I LOVE
-0.3010 <s> INTRODUCE YOURSELF
-0.3010 <s> JAR </s>
-1.9542 <s> OPEN ACCESS
-1.9542 <s> OPEN ANACONDA
-1.9542 <s> OPEN ARDUINO
-1.6532 <s> OPEN BLUETOOTH
-1.9542 <s> OPEN CALCULATOR
-1.9542 <s> OPEN CALENDAR
-1.9542 <s> OPEN CAMERA
-1.9542 <s> OPEN CENTER
-1.9542 <s> OPEN CHROME
-1.9542 <s> OPEN CMD
-1.9542 <s> OPEN CODE
-1.9542 <s> OPEN COMMAND
-1.9542 <s> OPEN DISPLAY
-1.9542 <s> OPEN ECLIPSE
-1.9542 <s> OPEN EXCEL
-1.9542 <s> OPEN FACEBOOK
-1.9542 <s> OPEN FIREFOX
-1.9542 <s> OPEN FIREWALL
-1.9542 <s> OPEN GIT
-1.9542 <s> OPEN MAIL
-1.9542 <s> OPEN MARJAVAAN
-1.9542 <s> OPEN MICROSOFT
-1.9542 <s> OPEN MYECLIPSE
-1.9542 <s> OPEN NETBEANS
-1.9542 <s> OPEN NETWORK
-1.9542 <s> OPEN NODE
-1.9542 <s> OPEN NOTEPAD
-1.9542 <s> OPEN NOTIFICATIONS
-1.9542 <s> OPEN PAINT
-1.9542 <s> OPEN PDF
-1.9542 <s> OPEN PERSONAL
-1.9542 <s> OPEN PHOTOS
-1.9542 <s> OPEN PPT
-1.9542 <s> OPEN PYTHON
-1.9542 <s> OPEN SETTING
-1.9542 <s> OPEN SOUND
-1.9542 <s> OPEN SQL
-1.9542 <s> OPEN TASK
-1.9542 <s> OPEN TEAM
-1.9542 <s> OPEN VLC
-1.9542 <s> OPEN WIFI
-1.9542 <s> OPEN WIKIPEDIA
-1.9542 <s> OPEN WORD
-1.9542 <s> OPEN YOUTUBE
-0.7782 <s> PLAY GROOVE
-0.4771 <s> PLAY MUSIC
-0.6021 <s> SET ONLY
-0.6021 <s> SET SOUND
-0.7782 <s> SHOW DATA
-0.7782 <s> SHOW ME
-0.7782 <s> SHOW WIFI
-0.7782 <s> START GIT
-0.7782 <s> START PROJECTING
-0.7782 <s> START TURBO
-0.3010 <s> THANK YOU,
-0.4771 <s> WHAT IS
-0.7782 <s> WHAT PROGRAMMING
-0.3010 <s> WHERE ARE
-0.3010 <s> WHO IS
-0.3010 ARE YOU? </s>
-0.3010 BLUETOOTH SETTING </s>
-0.3010 BYE, JAR </s>
-0.3010 CLOSE ACCESS </s>
-0.3010 CLOSE ANACONDA </s>
-0.3010 CLOSE ARDUINO </s>
-0.3010 CLOSE BLUETOOTH </s>
-0.3010 CLOSE CALCULATOR </s>
-0.3010 CLOSE CALENDAR </s>
-0.3010 CLOSE CAMERA </s>
-0.3010 CLOSE CHROME </s>
-0.3010 CLOSE CMD </s>
-0.3010 CLOSE CODE </s>
-0.3010 CLOSE COMMAND ADMIN
-0.3010 CLOSE ECLIPSE </s>
-0.3010 CLOSE EXCEL </s>
-0.3010 CLOSE FACEBOOK </s>
-0.3010 CLOSE FIREFOX </s>
-0.3010 CLOSE FIREWALL </s>
-0.6021 CLOSE GIT </s>
-0.6021 CLOSE GIT BASH
-0.3010 CLOSE GROOVE </s>
-0.3010 CLOSE MAIL </s>
-0.3010 CLOSE MICROSOFT </s>
-0.3010 CLOSE MUSIC </s>
-0.3010 CLOSE MYECLIPSE </s>
-0.3010 CLOSE NETBEANS </s>
-0.3010 CLOSE NODE </s>
-0.3010 CLOSE NOTIFICATIONS </s>
-0.3010 CLOSE PAINT </s>
-0.3010 CLOSE PDF </s>
-0.3010 CLOSE PHOTOS </s>
-0.3010 CLOSE PPT </s>
-0.3010 CLOSE PROJECTING </s>
-0.3010 CLOSE PYTHON </s>
-0.3010 CLOSE SETTING </s>
-0.3010 CLOSE SOUND </s>
-0.3010 CLOSE SQL </s>
-0.3010 CLOSE TASK </s>
-0.3010 CLOSE TEAM </s>
-0.3010 CLOSE TURBO </s>
-0.3010 CLOSE VLC </s>
-0.3010 CLOSE WORD </s>
-0.3010 COMMAND ADMIN </s>
-0.3010 CONNECT VIVO </s>
-0.3010 DATA USE </s>
-0.3010 DATE TIME </s>
-0.3010 DEVELOPING CODE? </s>
-0.3010 DISCONNECT WIFI </s>
-0.3010 DISPLAY SETTING </s>
-0.3010 GIT BASH </s>
-0.3010 GOOD AFTERNOON </s>
-0.3010 GOOD BYE, JAR
-0.3010 GOOD EVENING </s>
-0.3010 GOOD MORNING </s>
-0.3010 GOOD NIGHT </s>
-0.3010 HEY CORTANA </s>
-0.3010 HOW ARE YOU?
-0.3010 I LOVE YOU
-0.3010 IN YOU? </s>
-0.3010 INTRODUCE YOURSELF </s>
-0.3010 IS USED IN
-0.7782 IS YOUR DEVELOPER?
-0.7782 IS YOUR DEVELOPING
-0.7782 IS YOUR NAME?
-0.3010 LANGUAGE IS USED
-0.3010 LOVE YOU </s>
-0.3010 MARJAVAAN ON YOUTUBE
-0.3010 ME SYSTEM DETAILS
-0.3010 MUSIC FULLSCREEN </s>
-0.3010 ON YOUTUBE </s>
-0.3010 ONLY SOUND </s>
-0.3010 OPEN ACCESS </s>
-0.3010 OPEN ANACONDA </s>
-0.3010 OPEN ARDUINO </s>
-0.6021 OPEN BLUETOOTH </s>
-0.6021 OPEN BLUETOOTH SETTING
-0.3010 OPEN CALCULATOR </s>
-0.3010 OPEN CALENDAR </s>
-0.3010 OPEN CAMERA </s>
-0.3010 OPEN CENTER </s>
-0.3010 OPEN CHROME </s>
-0.3010 OPEN CMD </s>
-0.3010 OPEN CODE </s>
-0.3010 OPEN COMMAND ADMIN
-0.3010 OPEN DISPLAY SETTING
-0.3010 OPEN ECLIPSE </s>
-0.3010 OPEN EXCEL </s>
-0.3010 OPEN FACEBOOK </s>
-0.3010 OPEN FIREFOX </s>
-0.3010 OPEN FIREWALL </s>
-0.3010 OPEN GIT BASH
-0.3010 OPEN MAIL </s>
-0.3010 OPEN MARJAVAAN ON
-0.3010 OPEN MICROSOFT </s>
-0.3010 OPEN MYECLIPSE </s>
-0.3010 OPEN NETBEANS </s>
-0.3010 OPEN NETWORK </s>
-0.3010 OPEN NODE </s>
-0.3010 OPEN NOTEPAD </s>
-0.3010 OPEN NOTIFICATIONS </s>
-0.3010 OPEN PAINT </s>
-0.3010 OPEN PDF </s>
-0.3010 OPEN PERSONAL </s>
-0.3010 OPEN PHOTOS </s>
-0.3010 OPEN PPT </s>
-0.3010 OPEN PYTHON </s>
-0.3010 OPEN SETTING </s>
-0.3010 OPEN SOUND CARD
-0.3010 OPEN SQL </s>
-0.3010 OPEN TASK </s>
-0.3010 OPEN TEAM </s>
-0.3010 OPEN VLC </s>
-0.3010 OPEN WIFI SETTING
-0.3010 OPEN WIKIPEDIA </s>
-0.3010 OPEN WORD </s>
-0.3010 OPEN YOUTUBE </s>
-0.3010 PLAY GROOVE </s>
-0.6021 PLAY MUSIC </s>
-0.6021 PLAY MUSIC FULLSCREEN
-0.3010 PROGRAMMING LANGUAGE IS
-0.3010 SET ONLY SOUND
-0.3010 SET SOUND </s>
-0.3010 SHOW DATA USE
-0.3010 SHOW ME SYSTEM
-0.3010 SHOW WIFI NETWORK
-0.3010 SOUND CARD </s>
-0.3010 START GIT </s>
-0.3010 START PROJECTING </s>
-0.3010 START TURBO </s>
-0.3010 SYSTEM DETAILS </s>
-0.3010 THANK YOU, JAR
-0.3010 USED IN YOU?
-0.3010 WHAT IS YOUR
-0.3010 WHAT PROGRAMMING LANGUAGE
-0.3010 WHERE ARE YOU?
-0.3010 WHO IS YOUR
-0.3010 WIFI NETWORK </s>
-0.3010 WIFI SETTING </s>
-0.3010 YOU, JAR </s>
-0.3010 YOUR DEVELOPER? </s>
-0.3010 YOUR DEVELOPING CODE?
-0.3010 YOUR NAME? </s>

\end\
